<?xml version="1.0"?>
<opencv_storage>
<my_svm type_id="opencv-ml-svm">
  <svm_type>C_SVC</svm_type>
  <kernel><type>LINEAR</type></kernel>
  <C>1.0000000000000000e-002</C>
  <term_criteria><epsilon>1.1920928955078125e-007</epsilon>
    <iterations>10000</iterations></term_criteria>
  <var_all>576</var_all>
  <var_count>576</var_count>
  <class_count>2</class_count>
  <class_labels type_id="opencv-matrix">
    <rows>1</rows>
    <cols>2</cols>
    <dt>i</dt>
    <data>
      -1 1</data></class_labels>
  <sv_total>1</sv_total>
  <support_vectors>
    <_>
      7.02908412e-002 3.85549814e-002 3.36757526e-002 -3.43893953e-002
      4.36709598e-002 4.17917185e-002 5.38356975e-002 8.40773880e-002
      9.99011844e-002 2.47900654e-002 -6.67207539e-002 -1.05200663e-001
      -1.03789911e-001 -2.99112890e-002 -5.76711306e-003 2.87877265e-002
      4.12780680e-002 6.82925805e-002 1.63130071e-002 2.36390848e-002
      -7.60565232e-003 -9.50701013e-002 -5.58583476e-002
      -4.28959131e-002 -2.89266817e-002 1.62575748e-002 4.07437198e-002
      -1.18946269e-001 -2.06804961e-001 -2.59277731e-001
      -2.34124199e-001 -1.48619741e-001 -9.26834568e-002
      -8.68485570e-002 -6.97647259e-002 -7.38937929e-002 7.61479419e-003
      -6.50803223e-002 -6.83149993e-002 -1.22999530e-002 1.05588786e-001
      1.24879867e-001 1.59843668e-001 1.21139497e-001 6.72372580e-002
      -1.60657257e-001 -1.26573920e-001 -9.24516469e-002 4.87965681e-002
      1.49454698e-001 8.10881108e-002 -2.05785464e-002 -4.32036147e-002
      -1.44827664e-001 -9.36071053e-002 -1.30637169e-001
      -1.97989598e-001 -1.37756646e-001 -6.71983212e-002
      -1.57272667e-002 -5.97313978e-002 -4.64712866e-002
      -4.96807769e-002 -1.59981459e-001 -9.55126435e-002
      -9.37606990e-002 -5.31399176e-002 -8.22906047e-002
      -1.21454895e-001 -1.70417085e-001 -1.46256551e-001
      -1.50766388e-001 -9.25521106e-002 -2.20823027e-002 5.52109862e-003
      1.51805326e-001 2.53940850e-001 4.92243022e-002 -1.85419455e-001
      -1.38472423e-001 -1.33018658e-001 -4.84825810e-003 1.27538731e-002
      6.14370555e-002 2.27376819e-001 2.45305434e-001 2.76783966e-002
      -1.88412130e-001 -1.34506926e-001 -5.75940832e-002
      -2.57306974e-002 3.02380286e-002 1.74332876e-002 9.20527149e-003
      -9.60569084e-002 -1.98185503e-001 -2.80711502e-001
      -1.71342403e-001 -5.93347885e-002 7.13150948e-002 7.11379051e-002
      6.96513578e-002 8.99928808e-002 -6.80414215e-002 -1.67158693e-001
      -2.48219401e-001 -1.42288804e-001 1.55073414e-002 2.38719489e-003
      -3.31428908e-002 -1.09877875e-002 7.93151259e-002 6.22890890e-002
      -7.16772527e-002 -1.74427405e-001 -1.15965307e-001
      -2.64209379e-002 5.23692444e-002 2.49265376e-002 3.95698585e-002
      -9.15373908e-004 7.77840428e-003 -2.82037798e-002 -2.50241831e-002
      -9.95645858e-003 3.42281945e-002 7.11314529e-002 1.46672195e-002
      -1.87963969e-003 -2.18145959e-002 -1.10686317e-001
      -2.06489995e-001 -2.54895836e-001 -1.45698249e-001
      -5.36055816e-003 5.36174476e-002 1.00190118e-002 1.70342438e-002
      -3.75133418e-002 -8.51482600e-002 -1.12253122e-001
      -8.51537809e-002 -1.44353686e-002 4.91881929e-002 -2.57803071e-002
      3.23868394e-002 1.15904538e-002 -7.83894584e-003 2.39564218e-002
      7.60646537e-002 2.42795032e-002 2.28021238e-002 -2.23328210e-002
      -1.26354232e-001 -1.48793876e-001 -2.02287287e-001
      -1.96990043e-001 -1.12858094e-001 -3.08654848e-002
      -7.18008950e-002 -5.06657511e-002 -8.65103379e-002
      -4.92886417e-002 6.90511018e-002 1.07922152e-001 8.97890553e-002
      8.39772522e-002 9.85338762e-002 1.27204984e-001 8.93788114e-002
      -2.82065067e-002 1.59297797e-005 -5.21840528e-004 -7.97036216e-002
      -8.22353214e-002 -7.19933584e-002 -3.36504951e-002 5.00616524e-003
      7.13293478e-002 3.19579802e-002 -7.33067021e-002 -4.20706160e-003
      -2.01198105e-002 -1.47512993e-002 1.25857978e-003 4.07650042e-003
      -1.10690512e-001 -8.65046903e-002 -6.87597543e-002
      -2.72468105e-002 1.08097203e-001 7.49149248e-002 6.37322155e-005
      -9.97158214e-002 -1.52372926e-001 -1.76377654e-001
      -6.65762052e-002 -3.64615656e-002 7.69204274e-002 1.15041941e-001
      4.85824719e-002 2.25882158e-002 -4.95343134e-002 2.54408121e-002
      -8.45266599e-003 5.64625934e-002 8.28282684e-002 5.23151346e-002
      1.08840354e-001 2.80304812e-002 -3.94701026e-002 -8.90378356e-002
      -7.96494633e-002 -3.64070684e-002 2.42407396e-002 3.61254215e-002
      6.93218708e-002 1.01244807e-001 5.97161204e-002 -3.80566344e-002
      -1.64304093e-001 -1.38382465e-001 -1.11789040e-001 8.26003551e-002
      8.42632204e-002 1.14023022e-001 1.02757514e-001 9.21123251e-002
      -1.05363186e-002 -1.30784795e-001 -1.24902159e-001
      -1.16506092e-001 5.95980920e-002 1.03402555e-001 7.35941604e-002
      8.21499079e-002 1.97062101e-002 -7.63524845e-002 -1.48723796e-001
      -3.46198268e-002 5.42820245e-002 1.10030614e-001 7.37243965e-002
      1.08030945e-001 1.16351776e-001 6.39613718e-002 -6.28123507e-002
      -5.70845120e-002 -1.84423011e-002 7.88098574e-002 1.16804235e-001
      1.01359695e-001 1.08520605e-001 6.73291609e-002 5.06879799e-002
      -9.99678820e-002 -2.08766252e-001 -2.56217390e-001
      -1.83888376e-001 1.11807126e-003 7.98629150e-002 7.56202936e-002
      5.70036732e-002 7.78452009e-002 2.26159859e-002 -6.65467158e-002
      -5.47279865e-002 5.95174404e-003 9.05576274e-002 9.94320139e-002
      7.30439648e-002 8.78383368e-002 1.97851993e-002 -1.74546093e-001
      -1.50730640e-001 -1.56682923e-001 -4.35818769e-002 5.10432385e-002
      6.75374344e-002 4.25471812e-002 9.84668359e-002 8.81938934e-002
      -3.22619528e-002 -7.13642463e-002 -3.10543217e-002 9.34565663e-002
      1.13840304e-001 5.95644526e-002 -7.10098222e-002 5.23086712e-002
      9.24561992e-002 1.02326863e-001 8.91262963e-002 9.26625133e-002
      8.64638239e-002 6.86583892e-002 -4.96316217e-002 1.29843168e-002
      3.79502103e-002 9.16413590e-003 -3.39110978e-002 -8.21005926e-002
      -5.68365343e-002 -8.80514681e-002 1.47653930e-002 4.26146481e-003
      -3.91391665e-002 3.97764752e-003 3.95842679e-002 8.20532739e-002
      6.13171868e-002 1.19616538e-002 -3.42644728e-003 1.38764195e-002
      -2.22683344e-002 -9.84226316e-002 -5.00117056e-002
      -6.51419535e-002 -1.38249127e-002 -7.78262317e-002
      -1.17232770e-001 -1.86947256e-001 -1.49615765e-001
      -1.23744726e-001 6.44787699e-002 3.76677923e-002 -2.73707081e-002
      -6.80992473e-003 -3.48396450e-002 7.07123950e-002 5.74474335e-002
      1.12703770e-001 6.91927001e-002 2.06571128e-002 5.09707164e-003
      -8.20768699e-002 -1.21544190e-001 -1.04331836e-001
      -8.04308988e-003 5.50834127e-002 1.10627778e-001 5.09305708e-002
      -7.89124444e-002 -9.43820626e-002 -1.02597713e-001
      -1.77885499e-002 -2.29535215e-002 4.78391685e-002 -6.26774924e-003
      -1.31094661e-002 -8.42014253e-002 -3.09172142e-002
      -8.07029232e-002 -1.63069457e-001 -1.24419339e-001
      -9.81092453e-002 2.12478340e-002 8.65787491e-002 1.04266495e-001
      -2.91203074e-002 5.82838804e-002 7.80894086e-002 1.76092628e-002
      -8.02202746e-002 -1.51244596e-001 -3.52056511e-002 4.78221439e-002
      9.04407948e-002 6.45166934e-002 8.69742781e-002 9.86460224e-002
      5.86992688e-002 -6.83598891e-002 -8.35418552e-002 -2.97126975e-002
      8.44851285e-002 1.07048295e-001 8.65951106e-002 8.01010579e-002
      8.29513147e-002 -7.78044462e-002 -1.35962591e-001 -1.68445006e-001
      -2.24789158e-002 6.70965761e-002 1.21865109e-001 6.65534213e-002
      9.13056135e-002 5.54453433e-002 -8.91606659e-002 -9.30505171e-002
      -9.16528180e-002 2.80404761e-002 9.00049508e-002 1.08728312e-001
      8.72841477e-002 5.54668829e-002 4.91400808e-002 -4.91534136e-002
      -1.84786081e-001 -1.72826648e-001 -1.74351692e-001 3.49039808e-002
      7.63386562e-002 5.99316098e-002 4.37250994e-002 9.56174210e-002
      1.08603865e-001 -1.71253122e-002 -5.18998802e-002 -2.69078580e-003
      1.12506665e-001 1.01796344e-001 3.76267880e-002 6.04065657e-002
      -1.20190522e-002 -1.73531771e-001 -2.11584985e-001
      -1.64329097e-001 -1.04423285e-001 4.42708544e-002 5.77942133e-002
      8.01026151e-002 6.37420788e-002 7.01723546e-002 1.89112239e-002
      -5.97359836e-002 -2.72762123e-002 1.87765080e-002 9.47191268e-002
      3.93878147e-002 5.38316369e-002 3.28531303e-002 -9.78119485e-003
      -1.91024505e-002 -2.68255547e-002 -3.05531789e-002
      -7.13178515e-002 -1.48352562e-002 -3.07178427e-003 1.25676254e-002
      -7.89022520e-002 -4.90523092e-002 -7.65112042e-002
      -8.91098306e-002 -1.35576099e-001 -1.95246562e-001
      -2.33753264e-001 -1.86906382e-001 -1.28622368e-001 1.02445230e-001
      7.02979714e-002 3.78780067e-002 6.10008510e-003 -1.01189909e-003
      -3.91831100e-002 4.53591980e-002 6.21264614e-002 8.14583153e-002
      4.98024076e-002 4.92237173e-002 3.05132661e-002 -3.56832705e-002
      -4.50040139e-002 -9.82983634e-002 -7.75594860e-002
      -5.54651618e-002 7.48504186e-003 -6.46569505e-002 -6.08966053e-002
      -6.68223724e-002 -4.60853875e-002 -6.62227198e-002
      -5.95504753e-002 -1.58996642e-001 -1.10794947e-001
      -1.07800767e-001 -1.13983169e-001 -1.72822267e-001
      -1.70265064e-001 -1.29085764e-001 -1.01710975e-001
      -4.97569069e-002 -7.95513764e-002 -7.43205622e-002
      -1.50025815e-001 5.25752604e-002 9.65354145e-002 1.37060434e-001
      9.84607339e-002 9.08301622e-002 -6.54242001e-003 -3.16689350e-002
      -2.58816052e-002 -2.11270154e-003 -1.06005624e-001
      -6.45042285e-002 -2.53654402e-002 4.14614417e-002 8.68822783e-002
      1.19664138e-002 -1.01128094e-001 -1.15537979e-001 -1.36018097e-001
      -2.60850210e-002 -1.44591153e-001 -2.39144847e-001
      -1.95487529e-001 -9.84717682e-002 5.16894367e-003 -2.48708809e-003
      3.53594646e-002 -2.70485505e-002 4.08399617e-003 -1.46976918e-001
      -2.19554260e-001 -1.18351817e-001 -2.13797241e-002 1.04191758e-001
      4.76643555e-002 3.44365053e-002 1.64018646e-002 -1.04661159e-001
      -1.28166988e-001 -1.62267521e-001 1.39562478e-002 1.84942290e-001
      9.98588502e-002 -4.24972996e-002 -5.00697233e-002 -9.07987058e-002
      -7.14994371e-002 -1.51090726e-001 -1.72176376e-001 4.13151756e-002
      1.69605687e-001 1.72330067e-001 2.59975940e-002 -2.31890362e-002
      -4.53900211e-002 -2.67748591e-002 -1.37330458e-001
      -2.47743815e-001 -1.96523666e-001 -8.11293721e-002
      -1.45386765e-002 -2.72310455e-003 -3.85311898e-003 2.05846224e-002
      2.19196752e-002 6.34269975e-003 -5.58888353e-002 -7.32316077e-002
      -4.31569293e-002 -3.66141794e-005 3.78371365e-002 -5.06619969e-003
      2.51672398e-002 -7.33715072e-002 -1.29421398e-001 -1.52205139e-001
      -5.94124310e-002 2.95150094e-002 1.95261892e-002 -1.57213397e-002
      -5.60102910e-002 -4.26544882e-002 4.07974422e-003 -1.47302914e-002
      -5.71247470e-003 -2.94771884e-002 5.71896182e-003 -1.71004962e-002
      3.91499847e-002 2.45459843e-003 9.29196645e-003</_></support_vectors>
  <decision_functions>
    <_>
      <sv_count>1</sv_count>
      <rho>-2.9678621715945743e+000</rho>
      <alpha>
        1.</alpha>
      <index>
        0</index></_></decision_functions></my_svm>
</opencv_storage>
